digraph Tree {
node [shape=box, style="filled, rounded", color="black", fontname=helvetica] ;
edge [fontname=helvetica] ;
0 [label="petal length (cm) <= 2.45\ngini = 0.66\nsamples = 99\nvalue = [54, 51, 45]\nclass = setosa", fillcolor="#fefbf9"] ;
1 [label="gini = 0.0\nsamples = 33\nvalue = [54, 0, 0]\nclass = setosa", fillcolor="#e58139"] ;
0 -> 1 [labeldistance=2.5, labelangle=45, headlabel="True"] ;
2 [label="petal width (cm) <= 1.65\ngini = 0.5\nsamples = 66\nvalue = [0, 51, 45]\nclass = versicolor", fillcolor="#e8fcf0"] ;
0 -> 2 [labeldistance=2.5, labelangle=-45, headlabel="False"] ;
3 [label="petal length (cm) <= 5.45\ngini = 0.04\nsamples = 35\nvalue = [0, 48, 1]\nclass = versicolor", fillcolor="#3de684"] ;
2 -> 3 ;
4 [label="gini = 0.0\nsamples = 34\nvalue = [0, 48, 0]\nclass = versicolor", fillcolor="#39e581"] ;
3 -> 4 ;
5 [label="gini = 0.0\nsamples = 1\nvalue = [0, 0, 1]\nclass = virginica", fillcolor="#8139e5"] ;
3 -> 5 ;
6 [label="sepal length (cm) <= 5.95\ngini = 0.12\nsamples = 31\nvalue = [0, 3, 44]\nclass = virginica", fillcolor="#8a46e7"] ;
2 -> 6 ;
7 [label="petal length (cm) <= 4.95\ngini = 0.44\nsamples = 4\nvalue = [0, 2, 4]\nclass = virginica", fillcolor="#c09cf2"] ;
6 -> 7 ;
8 [label="petal length (cm) <= 4.65\ngini = 0.44\nsamples = 2\nvalue = [0, 2, 1]\nclass = versicolor", fillcolor="#9cf2c0"] ;
7 -> 8 ;
9 [label="gini = 0.0\nsamples = 1\nvalue = [0, 0, 1]\nclass = virginica", fillcolor="#8139e5"] ;
8 -> 9 ;
10 [label="gini = 0.0\nsamples = 1\nvalue = [0, 2, 0]\nclass = versicolor", fillcolor="#39e581"] ;
8 -> 10 ;
11 [label="gini = 0.0\nsamples = 2\nvalue = [0, 0, 3]\nclass = virginica", fillcolor="#8139e5"] ;
7 -> 11 ;
12 [label="petal length (cm) <= 5.1\ngini = 0.05\nsamples = 27\nvalue = [0, 1, 40]\nclass = virginica", fillcolor="#843ee6"] ;
6 -> 12 ;
13 [label="petal width (cm) <= 1.75\ngini = 0.32\nsamples = 5\nvalue = [0, 1, 4]\nclass = virginica", fillcolor="#a06aec"] ;
12 -> 13 ;
14 [label="gini = 0.0\nsamples = 1\nvalue = [0, 1, 0]\nclass = versicolor", fillcolor="#39e581"] ;
13 -> 14 ;
15 [label="gini = 0.0\nsamples = 4\nvalue = [0, 0, 4]\nclass = virginica", fillcolor="#8139e5"] ;
13 -> 15 ;
16 [label="gini = 0.0\nsamples = 22\nvalue = [0, 0, 36]\nclass = virginica", fillcolor="#8139e5"] ;
12 -> 16 ;
}